digraph Tree {
node [shape=box, fontname="helvetica"] ;
edge [fontname="helvetica"] ;
0 [label="Alkaline_Phosphotase <= 209.5\ngini = 0.409\nsamples = 408\nvalue = [291.0, 117.0]"] ;
1 [label="Aspartate_Aminotransferase <= 26.5\ngini = 0.486\nsamples = 212\nvalue = [124, 88]"] ;
0 -> 1 [labeldistance=2.5, labelangle=45, headlabel="True"] ;
2 [label="Albumin_and_Globulin_Ratio <= 1.35\ngini = 0.497\nsamples = 85\nvalue = [39, 46]"] ;
1 -> 2 ;
3 [label="Gender <= 0.5\ngini = 0.485\nsamples = 75\nvalue = [31, 44]"] ;
2 -> 3 ;
4 [label="Total_Bilirubin <= 0.65\ngini = 0.408\nsamples = 42\nvalue = [12, 30]"] ;
3 -> 4 ;
5 [label="Aspartate_Aminotransferase <= 20.5\ngini = 0.408\nsamples = 7\nvalue = [5, 2]"] ;
4 -> 5 ;
6 [label="Total_Protiens <= 6.95\ngini = 0.278\nsamples = 6\nvalue = [5, 1]"] ;
5 -> 6 ;
7 [label="gini = 0.0\nsamples = 5\nvalue = [5, 0]"] ;
6 -> 7 ;
8 [label="gini = 0.0\nsamples = 1\nvalue = [0, 1]"] ;
6 -> 8 ;
9 [label="gini = 0.0\nsamples = 1\nvalue = [0, 1]"] ;
5 -> 9 ;
10 [label="Total_Protiens <= 6.85\ngini = 0.32\nsamples = 35\nvalue = [7, 28]"] ;
4 -> 10 ;
11 [label="Alkaline_Phosphotase <= 95.5\ngini = 0.105\nsamples = 18\nvalue = [1, 17]"] ;
10 -> 11 ;
12 [label="gini = 0.0\nsamples = 1\nvalue = [1, 0]"] ;
11 -> 12 ;
13 [label="gini = 0.0\nsamples = 17\nvalue = [0, 17]"] ;
11 -> 13 ;
14 [label="Age <= 44.0\ngini = 0.457\nsamples = 17\nvalue = [6, 11]"] ;
10 -> 14 ;
15 [label="gini = 0.0\nsamples = 6\nvalue = [0, 6]"] ;
14 -> 15 ;
16 [label="Total_Protiens <= 8.15\ngini = 0.496\nsamples = 11\nvalue = [6, 5]"] ;
14 -> 16 ;
17 [label="Total_Bilirubin <= 0.75\ngini = 0.375\nsamples = 8\nvalue = [6, 2]"] ;
16 -> 17 ;
18 [label="Alamine_Aminotransferase <= 15.0\ngini = 0.444\nsamples = 3\nvalue = [1, 2]"] ;
17 -> 18 ;
19 [label="gini = 0.0\nsamples = 1\nvalue = [1, 0]"] ;
18 -> 19 ;
20 [label="gini = 0.0\nsamples = 2\nvalue = [0, 2]"] ;
18 -> 20 ;
21 [label="gini = 0.0\nsamples = 5\nvalue = [5, 0]"] ;
17 -> 21 ;
22 [label="gini = 0.0\nsamples = 3\nvalue = [0, 3]"] ;
16 -> 22 ;
23 [label="Alamine_Aminotransferase <= 13.0\ngini = 0.489\nsamples = 33\nvalue = [19, 14]"] ;
3 -> 23 ;
24 [label="gini = 0.0\nsamples = 4\nvalue = [0, 4]"] ;
23 -> 24 ;
25 [label="Age <= 64.5\ngini = 0.452\nsamples = 29\nvalue = [19, 10]"] ;
23 -> 25 ;
26 [label="Aspartate_Aminotransferase <= 22.5\ngini = 0.403\nsamples = 25\nvalue = [18.0, 7.0]"] ;
25 -> 26 ;
27 [label="Albumin_and_Globulin_Ratio <= 0.65\ngini = 0.208\nsamples = 17\nvalue = [15, 2]"] ;
26 -> 27 ;
28 [label="gini = 0.0\nsamples = 1\nvalue = [0, 1]"] ;
27 -> 28 ;
29 [label="Albumin_and_Globulin_Ratio <= 1.25\ngini = 0.117\nsamples = 16\nvalue = [15, 1]"] ;
27 -> 29 ;
30 [label="gini = 0.0\nsamples = 15\nvalue = [15, 0]"] ;
29 -> 30 ;
31 [label="gini = 0.0\nsamples = 1\nvalue = [0, 1]"] ;
29 -> 31 ;
32 [label="Alkaline_Phosphotase <= 143.5\ngini = 0.469\nsamples = 8\nvalue = [3, 5]"] ;
26 -> 32 ;
33 [label="gini = 0.0\nsamples = 2\nvalue = [2, 0]"] ;
32 -> 33 ;
34 [label="Total_Protiens <= 7.25\ngini = 0.278\nsamples = 6\nvalue = [1, 5]"] ;
32 -> 34 ;
35 [label="gini = 0.0\nsamples = 4\nvalue = [0, 4]"] ;
34 -> 35 ;
36 [label="Alamine_Aminotransferase <= 28.0\ngini = 0.5\nsamples = 2\nvalue = [1, 1]"] ;
34 -> 36 ;
37 [label="gini = 0.0\nsamples = 1\nvalue = [1, 0]"] ;
36 -> 37 ;
38 [label="gini = 0.0\nsamples = 1\nvalue = [0, 1]"] ;
36 -> 38 ;
39 [label="Albumin <= 2.3\ngini = 0.375\nsamples = 4\nvalue = [1, 3]"] ;
25 -> 39 ;
40 [label="gini = 0.0\nsamples = 1\nvalue = [1, 0]"] ;
39 -> 40 ;
41 [label="gini = 0.0\nsamples = 3\nvalue = [0, 3]"] ;
39 -> 41 ;
42 [label="Alamine_Aminotransferase <= 23.5\ngini = 0.32\nsamples = 10\nvalue = [8, 2]"] ;
2 -> 42 ;
43 [label="gini = 0.0\nsamples = 7\nvalue = [7, 0]"] ;
42 -> 43 ;
44 [label="Age <= 42.5\ngini = 0.444\nsamples = 3\nvalue = [1, 2]"] ;
42 -> 44 ;
45 [label="gini = 0.0\nsamples = 2\nvalue = [0, 2]"] ;
44 -> 45 ;
46 [label="gini = 0.0\nsamples = 1\nvalue = [1, 0]"] ;
44 -> 46 ;
47 [label="Albumin_and_Globulin_Ratio <= 1.17\ngini = 0.443\nsamples = 127\nvalue = [85, 42]"] ;
1 -> 47 ;
48 [label="Total_Protiens <= 5.95\ngini = 0.378\nsamples = 91\nvalue = [68, 23]"] ;
47 -> 48 ;
49 [label="Age <= 56.5\ngini = 0.492\nsamples = 32\nvalue = [18, 14]"] ;
48 -> 49 ;
50 [label="Alkaline_Phosphotase <= 175.5\ngini = 0.455\nsamples = 20\nvalue = [7, 13]"] ;
49 -> 50 ;
51 [label="Albumin_and_Globulin_Ratio <= 0.975\ngini = 0.18\nsamples = 10\nvalue = [1, 9]"] ;
50 -> 51 ;
52 [label="gini = 0.0\nsamples = 7\nvalue = [0, 7]"] ;
51 -> 52 ;
53 [label="Direct_Bilirubin <= 1.25\ngini = 0.444\nsamples = 3\nvalue = [1, 2]"] ;
51 -> 53 ;
54 [label="gini = 0.0\nsamples = 1\nvalue = [1, 0]"] ;
53 -> 54 ;
55 [label="gini = 0.0\nsamples = 2\nvalue = [0, 2]"] ;
53 -> 55 ;
56 [label="Total_Protiens <= 5.65\ngini = 0.48\nsamples = 10\nvalue = [6, 4]"] ;
50 -> 56 ;
57 [label="Alamine_Aminotransferase <= 77.0\ngini = 0.245\nsamples = 7\nvalue = [6, 1]"] ;
56 -> 57 ;
58 [label="gini = 0.0\nsamples = 6\nvalue = [6, 0]"] ;
57 -> 58 ;
59 [label="gini = 0.0\nsamples = 1\nvalue = [0, 1]"] ;
57 -> 59 ;
60 [label="gini = 0.0\nsamples = 3\nvalue = [0, 3]"] ;
56 -> 60 ;
61 [label="Total_Protiens <= 4.1\ngini = 0.153\nsamples = 12\nvalue = [11, 1]"] ;
49 -> 61 ;
62 [label="Alamine_Aminotransferase <= 33.0\ngini = 0.5\nsamples = 2\nvalue = [1, 1]"] ;
61 -> 62 ;
63 [label="gini = 0.0\nsamples = 1\nvalue = [1, 0]"] ;
62 -> 63 ;
64 [label="gini = 0.0\nsamples = 1\nvalue = [0, 1]"] ;
62 -> 64 ;
65 [label="gini = 0.0\nsamples = 10\nvalue = [10, 0]"] ;
61 -> 65 ;
66 [label="Alamine_Aminotransferase <= 34.0\ngini = 0.259\nsamples = 59\nvalue = [50, 9]"] ;
48 -> 66 ;
67 [label="Age <= 37.0\ngini = 0.426\nsamples = 26\nvalue = [18, 8]"] ;
66 -> 67 ;
68 [label="Albumin <= 3.95\ngini = 0.408\nsamples = 7\nvalue = [2, 5]"] ;
67 -> 68 ;
69 [label="Aspartate_Aminotransferase <= 32.5\ngini = 0.278\nsamples = 6\nvalue = [1, 5]"] ;
68 -> 69 ;
70 [label="Total_Bilirubin <= 1.0\ngini = 0.5\nsamples = 2\nvalue = [1, 1]"] ;
69 -> 70 ;
71 [label="gini = 0.0\nsamples = 1\nvalue = [0, 1]"] ;
70 -> 71 ;
72 [label="gini = 0.0\nsamples = 1\nvalue = [1, 0]"] ;
70 -> 72 ;
73 [label="gini = 0.0\nsamples = 4\nvalue = [0, 4]"] ;
69 -> 73 ;
74 [label="gini = 0.0\nsamples = 1\nvalue = [1, 0]"] ;
68 -> 74 ;
75 [label="Albumin <= 3.95\ngini = 0.266\nsamples = 19\nvalue = [16, 3]"] ;
67 -> 75 ;
76 [label="Aspartate_Aminotransferase <= 76.0\ngini = 0.111\nsamples = 17\nvalue = [16, 1]"] ;
75 -> 76 ;
77 [label="gini = 0.0\nsamples = 15\nvalue = [15, 0]"] ;
76 -> 77 ;
78 [label="Total_Bilirubin <= 11.7\ngini = 0.5\nsamples = 2\nvalue = [1, 1]"] ;
76 -> 78 ;
79 [label="gini = 0.0\nsamples = 1\nvalue = [0, 1]"] ;
78 -> 79 ;
80 [label="gini = 0.0\nsamples = 1\nvalue = [1, 0]"] ;
78 -> 80 ;
81 [label="gini = 0.0\nsamples = 2\nvalue = [0, 2]"] ;
75 -> 81 ;
82 [label="Total_Protiens <= 6.15\ngini = 0.059\nsamples = 33\nvalue = [32, 1]"] ;
66 -> 82 ;
83 [label="Albumin <= 3.25\ngini = 0.245\nsamples = 7\nvalue = [6, 1]"] ;
82 -> 83 ;
84 [label="gini = 0.0\nsamples = 6\nvalue = [6, 0]"] ;
83 -> 84 ;
85 [label="gini = 0.0\nsamples = 1\nvalue = [0, 1]"] ;
83 -> 85 ;
86 [label="gini = 0.0\nsamples = 26\nvalue = [26, 0]"] ;
82 -> 86 ;
87 [label="Age <= 51.0\ngini = 0.498\nsamples = 36\nvalue = [17, 19]"] ;
47 -> 87 ;
88 [label="Age <= 37.5\ngini = 0.469\nsamples = 24\nvalue = [15, 9]"] ;
87 -> 88 ;
89 [label="Age <= 32.0\ngini = 0.5\nsamples = 18\nvalue = [9, 9]"] ;
88 -> 89 ;
90 [label="Aspartate_Aminotransferase <= 34.5\ngini = 0.444\nsamples = 12\nvalue = [8, 4]"] ;
89 -> 90 ;
91 [label="gini = 0.0\nsamples = 5\nvalue = [5, 0]"] ;
90 -> 91 ;
92 [label="Albumin <= 4.2\ngini = 0.49\nsamples = 7\nvalue = [3, 4]"] ;
90 -> 92 ;
93 [label="Albumin <= 3.05\ngini = 0.32\nsamples = 5\nvalue = [1, 4]"] ;
92 -> 93 ;
94 [label="gini = 0.0\nsamples = 1\nvalue = [1, 0]"] ;
93 -> 94 ;
95 [label="gini = 0.0\nsamples = 4\nvalue = [0, 4]"] ;
93 -> 95 ;
96 [label="gini = 0.0\nsamples = 2\nvalue = [2, 0]"] ;
92 -> 96 ;
97 [label="Alkaline_Phosphotase <= 201.5\ngini = 0.278\nsamples = 6\nvalue = [1, 5]"] ;
89 -> 97 ;
98 [label="gini = 0.0\nsamples = 5\nvalue = [0, 5]"] ;
97 -> 98 ;
99 [label="gini = 0.0\nsamples = 1\nvalue = [1, 0]"] ;
97 -> 99 ;
100 [label="gini = 0.0\nsamples = 6\nvalue = [6, 0]"] ;
88 -> 100 ;
101 [label="Direct_Bilirubin <= 1.5\ngini = 0.278\nsamples = 12\nvalue = [2, 10]"] ;
87 -> 101 ;
102 [label="Alkaline_Phosphotase <= 194.5\ngini = 0.165\nsamples = 11\nvalue = [1, 10]"] ;
101 -> 102 ;
103 [label="gini = 0.0\nsamples = 9\nvalue = [0, 9]"] ;
102 -> 103 ;
104 [label="Albumin_and_Globulin_Ratio <= 1.4\ngini = 0.5\nsamples = 2\nvalue = [1, 1]"] ;
102 -> 104 ;
105 [label="gini = 0.0\nsamples = 1\nvalue = [0, 1]"] ;
104 -> 105 ;
106 [label="gini = 0.0\nsamples = 1\nvalue = [1, 0]"] ;
104 -> 106 ;
107 [label="gini = 0.0\nsamples = 1\nvalue = [1, 0]"] ;
101 -> 107 ;
108 [label="Age <= 17.5\ngini = 0.252\nsamples = 196\nvalue = [167, 29]"] ;
0 -> 108 [labeldistance=2.5, labelangle=-45, headlabel="False"] ;
109 [label="Aspartate_Aminotransferase <= 57.0\ngini = 0.473\nsamples = 13\nvalue = [5, 8]"] ;
108 -> 109 ;
110 [label="gini = 0.0\nsamples = 7\nvalue = [0, 7]"] ;
109 -> 110 ;
111 [label="Age <= 5.5\ngini = 0.278\nsamples = 6\nvalue = [5, 1]"] ;
109 -> 111 ;
112 [label="gini = 0.0\nsamples = 1\nvalue = [0, 1]"] ;
111 -> 112 ;
113 [label="gini = 0.0\nsamples = 5\nvalue = [5, 0]"] ;
111 -> 113 ;
114 [label="Alamine_Aminotransferase <= 11.0\ngini = 0.203\nsamples = 183\nvalue = [162, 21]"] ;
108 -> 114 ;
115 [label="gini = 0.0\nsamples = 2\nvalue = [0, 2]"] ;
114 -> 115 ;
116 [label="Direct_Bilirubin <= 1.25\ngini = 0.188\nsamples = 181\nvalue = [162, 19]"] ;
114 -> 116 ;
117 [label="Alkaline_Phosphotase <= 277.0\ngini = 0.271\nsamples = 105\nvalue = [88, 17]"] ;
116 -> 117 ;
118 [label="Albumin_and_Globulin_Ratio <= 1.15\ngini = 0.391\nsamples = 45\nvalue = [33, 12]"] ;
117 -> 118 ;
119 [label="Direct_Bilirubin <= 0.55\ngini = 0.307\nsamples = 37\nvalue = [30, 7]"] ;
118 -> 119 ;
120 [label="Total_Protiens <= 5.85\ngini = 0.142\nsamples = 26\nvalue = [24, 2]"] ;
119 -> 120 ;
121 [label="Total_Protiens <= 5.2\ngini = 0.48\nsamples = 5\nvalue = [3, 2]"] ;
120 -> 121 ;
122 [label="gini = 0.0\nsamples = 3\nvalue = [3, 0]"] ;
121 -> 122 ;
123 [label="gini = 0.0\nsamples = 2\nvalue = [0, 2]"] ;
121 -> 123 ;
124 [label="gini = 0.0\nsamples = 21\nvalue = [21, 0]"] ;
120 -> 124 ;
125 [label="Alkaline_Phosphotase <= 225.0\ngini = 0.496\nsamples = 11\nvalue = [6, 5]"] ;
119 -> 125 ;
126 [label="gini = 0.0\nsamples = 5\nvalue = [5, 0]"] ;
125 -> 126 ;
127 [label="Albumin <= 1.9\ngini = 0.278\nsamples = 6\nvalue = [1, 5]"] ;
125 -> 127 ;
128 [label="gini = 0.0\nsamples = 1\nvalue = [1, 0]"] ;
127 -> 128 ;
129 [label="gini = 0.0\nsamples = 5\nvalue = [0, 5]"] ;
127 -> 129 ;
130 [label="Age <= 35.5\ngini = 0.469\nsamples = 8\nvalue = [3, 5]"] ;
118 -> 130 ;
131 [label="Alamine_Aminotransferase <= 29.5\ngini = 0.375\nsamples = 4\nvalue = [3, 1]"] ;
130 -> 131 ;
132 [label="gini = 0.0\nsamples = 1\nvalue = [0, 1]"] ;
131 -> 132 ;
133 [label="gini = 0.0\nsamples = 3\nvalue = [3, 0]"] ;
131 -> 133 ;
134 [label="gini = 0.0\nsamples = 4\nvalue = [0, 4]"] ;
130 -> 134 ;
135 [label="Age <= 39.0\ngini = 0.153\nsamples = 60\nvalue = [55, 5]"] ;
117 -> 135 ;
136 [label="Age <= 35.5\ngini = 0.308\nsamples = 21\nvalue = [17, 4]"] ;
135 -> 136 ;
137 [label="gini = 0.0\nsamples = 16\nvalue = [16, 0]"] ;
136 -> 137 ;
138 [label="Aspartate_Aminotransferase <= 120.5\ngini = 0.32\nsamples = 5\nvalue = [1, 4]"] ;
136 -> 138 ;
139 [label="gini = 0.0\nsamples = 4\nvalue = [0, 4]"] ;
138 -> 139 ;
140 [label="gini = 0.0\nsamples = 1\nvalue = [1, 0]"] ;
138 -> 140 ;
141 [label="Age <= 62.5\ngini = 0.05\nsamples = 39\nvalue = [38, 1]"] ;
135 -> 141 ;
142 [label="gini = 0.0\nsamples = 29\nvalue = [29, 0]"] ;
141 -> 142 ;
143 [label="Albumin <= 3.15\ngini = 0.18\nsamples = 10\nvalue = [9, 1]"] ;
141 -> 143 ;
144 [label="gini = 0.0\nsamples = 9\nvalue = [9, 0]"] ;
143 -> 144 ;
145 [label="gini = 0.0\nsamples = 1\nvalue = [0, 1]"] ;
143 -> 145 ;
146 [label="Alkaline_Phosphotase <= 1465.0\ngini = 0.051\nsamples = 76\nvalue = [74, 2]"] ;
116 -> 146 ;
147 [label="Alkaline_Phosphotase <= 636.5\ngini = 0.026\nsamples = 75\nvalue = [74, 1]"] ;
146 -> 147 ;
148 [label="gini = 0.0\nsamples = 66\nvalue = [66, 0]"] ;
147 -> 148 ;
149 [label="Alkaline_Phosphotase <= 665.5\ngini = 0.198\nsamples = 9\nvalue = [8, 1]"] ;
147 -> 149 ;
150 [label="gini = 0.0\nsamples = 1\nvalue = [0, 1]"] ;
149 -> 150 ;
151 [label="gini = 0.0\nsamples = 8\nvalue = [8, 0]"] ;
149 -> 151 ;
152 [label="gini = 0.0\nsamples = 1\nvalue = [0, 1]"] ;
146 -> 152 ;
}
